<?xml version="1.0"?>
<opencv_storage>
<stage2>
  <maxWeakCount>6</maxWeakCount>
  <stageThreshold>-1.3966227769851685e+00</stageThreshold>
  <weakClassifiers>
    <_>
      <internalNodes>
        0 -1 431886 3.5239055752754211e-02</internalNodes>
      <leafValues>
        -7.7570092678070068e-01 6.2025314569473267e-01</leafValues></_>
    <_>
      <internalNodes>
        0 -1 10665 1.5417428687214851e-02</internalNodes>
      <leafValues>
        -7.3433303833007813e-01 4.7035497426986694e-01</leafValues></_>
    <_>
      <internalNodes>
        0 -1 376857 1.0854050517082214e-02</internalNodes>
      <leafValues>
        -7.6033097505569458e-01 4.3246191740036011e-01</leafValues></_>
    <_>
      <internalNodes>
        0 -1 616864 1.8798406235873699e-03</internalNodes>
      <leafValues>
        -8.5854029655456543e-01 3.6987674236297607e-01</leafValues></_>
    <_>
      <internalNodes>
        0 -1 680311 3.2693408429622650e-03</internalNodes>
      <leafValues>
        2.8593790531158447e-01 -8.7058842182159424e-01</leafValues></_>
    <_>
      <internalNodes>
        0 -1 106277 -8.0304627772420645e-05</internalNodes>
      <leafValues>
        -9.1343337297439575e-01 2.5355160236358643e-01</leafValues></_></weakClassifiers></stage2>
</opencv_storage>
