<?xml version="1.0"?>
<opencv_storage>
<stage11>
  <maxWeakCount>6</maxWeakCount>
  <stageThreshold>-1.1849955320358276e+00</stageThreshold>
  <weakClassifiers>
    <_>
      <internalNodes>
        0 -1 358234 4.4734802097082138e-02</internalNodes>
      <leafValues>
        -7.5238096714019775e-01 4.3529412150382996e-01</leafValues></_>
    <_>
      <internalNodes>
        0 -1 289265 7.1864284109324217e-04</internalNodes>
      <leafValues>
        2.0001283288002014e-01 -7.6505857706069946e-01</leafValues></_>
    <_>
      <internalNodes>
        0 -1 465689 3.2523114234209061e-02</internalNodes>
      <leafValues>
        -7.8399246931076050e-01 2.7570012211799622e-01</leafValues></_>
    <_>
      <internalNodes>
        0 -1 571738 4.5190137461759150e-04</internalNodes>
      <leafValues>
        -8.0720591545104980e-01 3.3149567246437073e-01</leafValues></_>
    <_>
      <internalNodes>
        0 -1 674167 -3.8012698292732239e-02</internalNodes>
      <leafValues>
        8.1809288263320923e-01 -3.5244688391685486e-01</leafValues></_>
    <_>
      <internalNodes>
        0 -1 335929 1.5332942130044103e-03</internalNodes>
      <leafValues>
        2.5132524967193604e-01 -1.</leafValues></_></weakClassifiers></stage11>
</opencv_storage>
